Language model created by QuickLM on Sun Nov  3 21:20:15 EST 2013
Copyright (c) 1996-2010 Carnegie Mellon University and Alexander I. Rudnicky

The model is in standard ARPA format, designed by Doug Paul while he was at MITRE.

The code that was used to produce this language model is available in Open Source.
Please visit http://www.speech.cs.cmu.edu/tools/ for more information

The (fixed) discount mass is 0.5. The backoffs are computed using the ratio method.
This model based on a corpus of 22 sentences and 25 words

\data\
ngram 1=25
ngram 2=45
ngram 3=23

\1-grams:
-0.7847 </s> -0.3010
-0.7847 <s> -0.2231
-2.1271 BACK -0.2231
-2.1271 CALL -0.2231
-2.1271 EIGHT -0.2231
-2.1271 ELEVATION -0.2231
-2.1271 FIVE -0.2231
-2.1271 FOUR -0.2231
-2.1271 LEGS -0.2231
-2.1271 LOWER -0.2231
-2.1271 MAN -0.2231
-2.1271 NINE -0.2231
-2.1271 ONE -0.2231
-2.1271 RAISE -0.2231
-2.1271 SAND -0.2978
-2.1271 SCHEDULE -0.2231
-2.1271 SEVEN -0.2231
-2.1271 SIX -0.2231
-2.1271 START -0.2231
-2.1271 STATUS -0.2231
-2.1271 STOP -0.2231
-2.1271 THREE -0.2231
-2.1271 TWO -0.2231
-2.1271 VOLUME -0.2231
-2.1271 ZERO -0.2231

\2-grams:
-1.6435 <s> BACK 0.0000
-1.6435 <s> CALL 0.0000
-1.6435 <s> EIGHT 0.0000
-1.6435 <s> ELEVATION 0.0000
-1.6435 <s> FIVE 0.0000
-1.6435 <s> FOUR 0.0000
-1.6435 <s> LEGS 0.0000
-1.6435 <s> LOWER 0.0000
-1.6435 <s> NINE 0.0000
-1.6435 <s> ONE 0.0000
-1.6435 <s> RAISE 0.0000
-1.6435 <s> SAND 0.0000
-1.6435 <s> SCHEDULE 0.0000
-1.6435 <s> SEVEN 0.0000
-1.6435 <s> SIX 0.0000
-1.6435 <s> START 0.0000
-1.6435 <s> STATUS 0.0000
-1.6435 <s> STOP 0.0000
-1.6435 <s> THREE 0.0000
-1.6435 <s> TWO 0.0000
-1.6435 <s> VOLUME 0.0000
-1.6435 <s> ZERO 0.0000
-0.3010 BACK </s> -0.3010
-0.3010 CALL </s> -0.3010
-0.3010 EIGHT </s> -0.3010
-0.3010 ELEVATION </s> -0.3010
-0.3010 FIVE </s> -0.3010
-0.3010 FOUR </s> -0.3010
-0.3010 LEGS </s> -0.3010
-0.3010 LOWER </s> -0.3010
-0.3010 MAN </s> -0.3010
-0.3010 NINE </s> -0.3010
-0.3010 ONE </s> -0.3010
-0.3010 RAISE </s> -0.3010
-0.3010 SAND MAN 0.0000
-0.3010 SCHEDULE </s> -0.3010
-0.3010 SEVEN </s> -0.3010
-0.3010 SIX </s> -0.3010
-0.3010 START </s> -0.3010
-0.3010 STATUS </s> -0.3010
-0.3010 STOP </s> -0.3010
-0.3010 THREE </s> -0.3010
-0.3010 TWO </s> -0.3010
-0.3010 VOLUME </s> -0.3010
-0.3010 ZERO </s> -0.3010

\3-grams:
-0.3010 <s> BACK </s>
-0.3010 <s> CALL </s>
-0.3010 <s> EIGHT </s>
-0.3010 <s> ELEVATION </s>
-0.3010 <s> FIVE </s>
-0.3010 <s> FOUR </s>
-0.3010 <s> LEGS </s>
-0.3010 <s> LOWER </s>
-0.3010 <s> NINE </s>
-0.3010 <s> ONE </s>
-0.3010 <s> RAISE </s>
-0.3010 <s> SAND MAN
-0.3010 <s> SCHEDULE </s>
-0.3010 <s> SEVEN </s>
-0.3010 <s> SIX </s>
-0.3010 <s> START </s>
-0.3010 <s> STATUS </s>
-0.3010 <s> STOP </s>
-0.3010 <s> THREE </s>
-0.3010 <s> TWO </s>
-0.3010 <s> VOLUME </s>
-0.3010 <s> ZERO </s>
-0.3010 SAND MAN </s>

\end\
