Language model created by QuickLM on Sat Aug 10 21:30:51 EDT 2013
Copyright (c) 1996-2010 Carnegie Mellon University and Alexander I. Rudnicky

The model is in standard ARPA format, designed by Doug Paul while he was at MITRE.

The code that was used to produce this language model is available in Open Source.
Please visit http://www.speech.cs.cmu.edu/tools/ for more information

The (fixed) discount mass is 0.5. The backoffs are computed using the ratio method.
This model based on a corpus of 35 sentences and 38 words

\data\
ngram 1=38
ngram 2=71
ngram 3=36

\1-grams:
-0.7823 </s> -0.3010
-0.7823 <s> -0.2227
-2.3263 BEGIN -0.2227
-2.3263 CALL -0.2227
-2.3263 DOWN -0.2227
-2.3263 EIGHT -0.2227
-2.3263 EIGHTEEN -0.2227
-2.3263 ELEVATION -0.2227
-2.3263 ELEVEN -0.2227
-2.3263 END -0.2227
-2.3263 FIFTEEN -0.2227
-2.3263 FIVE -0.2227
-2.3263 FOUR -0.2227
-2.3263 FOURTEEN -0.2227
-2.3263 GO -0.2227
-2.3263 HEAD -0.2227
-2.3263 KNEE -0.2227
-2.3263 LEFT -0.2227
-2.3263 MAN -0.2227
-2.3263 MUTE -0.2227
-2.3263 NINE -0.2227
-2.3263 NINETEEN -0.2227
-2.3263 ONE -0.2227
-2.3263 RIGHT -0.2227
-2.3263 SAND -0.2990
-2.3263 SEVEN -0.2227
-2.3263 SEVENTEEN -0.2227
-2.3263 SIX -0.2227
-2.3263 SIXTEEN -0.2227
-2.3263 STOP -0.2227
-2.3263 TEN -0.2227
-2.3263 THIRTEEN -0.2227
-2.3263 THREE -0.2227
-2.3263 TWELVE -0.2227
-2.3263 TWO -0.2227
-2.3263 UNMUTE -0.2227
-2.3263 UP -0.2227
-2.3263 VOLUME -0.2227

\2-grams:
-1.8451 <s> BEGIN 0.0000
-1.8451 <s> CALL 0.0000
-1.8451 <s> DOWN 0.0000
-1.8451 <s> EIGHT 0.0000
-1.8451 <s> EIGHTEEN 0.0000
-1.8451 <s> ELEVATION 0.0000
-1.8451 <s> ELEVEN 0.0000
-1.8451 <s> END 0.0000
-1.8451 <s> FIFTEEN 0.0000
-1.8451 <s> FIVE 0.0000
-1.8451 <s> FOUR 0.0000
-1.8451 <s> FOURTEEN 0.0000
-1.8451 <s> GO 0.0000
-1.8451 <s> HEAD 0.0000
-1.8451 <s> KNEE 0.0000
-1.8451 <s> LEFT 0.0000
-1.8451 <s> MUTE 0.0000
-1.8451 <s> NINE 0.0000
-1.8451 <s> NINETEEN 0.0000
-1.8451 <s> ONE 0.0000
-1.8451 <s> RIGHT 0.0000
-1.8451 <s> SAND 0.0000
-1.8451 <s> SEVEN 0.0000
-1.8451 <s> SEVENTEEN 0.0000
-1.8451 <s> SIX 0.0000
-1.8451 <s> SIXTEEN 0.0000
-1.8451 <s> STOP 0.0000
-1.8451 <s> TEN 0.0000
-1.8451 <s> THIRTEEN 0.0000
-1.8451 <s> THREE 0.0000
-1.8451 <s> TWELVE 0.0000
-1.8451 <s> TWO 0.0000
-1.8451 <s> UNMUTE 0.0000
-1.8451 <s> UP 0.0000
-1.8451 <s> VOLUME 0.0000
-0.3010 BEGIN </s> -0.3010
-0.3010 CALL </s> -0.3010
-0.3010 DOWN </s> -0.3010
-0.3010 EIGHT </s> -0.3010
-0.3010 EIGHTEEN </s> -0.3010
-0.3010 ELEVATION </s> -0.3010
-0.3010 ELEVEN </s> -0.3010
-0.3010 END </s> -0.3010
-0.3010 FIFTEEN </s> -0.3010
-0.3010 FIVE </s> -0.3010
-0.3010 FOUR </s> -0.3010
-0.3010 FOURTEEN </s> -0.3010
-0.3010 GO </s> -0.3010
-0.3010 HEAD </s> -0.3010
-0.3010 KNEE </s> -0.3010
-0.3010 LEFT </s> -0.3010
-0.3010 MAN </s> -0.3010
-0.3010 MUTE </s> -0.3010
-0.3010 NINE </s> -0.3010
-0.3010 NINETEEN </s> -0.3010
-0.3010 ONE </s> -0.3010
-0.3010 RIGHT </s> -0.3010
-0.3010 SAND MAN 0.0000
-0.3010 SEVEN </s> -0.3010
-0.3010 SEVENTEEN </s> -0.3010
-0.3010 SIX </s> -0.3010
-0.3010 SIXTEEN </s> -0.3010
-0.3010 STOP </s> -0.3010
-0.3010 TEN </s> -0.3010
-0.3010 THIRTEEN </s> -0.3010
-0.3010 THREE </s> -0.3010
-0.3010 TWELVE </s> -0.3010
-0.3010 TWO </s> -0.3010
-0.3010 UNMUTE </s> -0.3010
-0.3010 UP </s> -0.3010
-0.3010 VOLUME </s> -0.3010

\3-grams:
-0.3010 <s> BEGIN </s>
-0.3010 <s> CALL </s>
-0.3010 <s> DOWN </s>
-0.3010 <s> EIGHT </s>
-0.3010 <s> EIGHTEEN </s>
-0.3010 <s> ELEVATION </s>
-0.3010 <s> ELEVEN </s>
-0.3010 <s> END </s>
-0.3010 <s> FIFTEEN </s>
-0.3010 <s> FIVE </s>
-0.3010 <s> FOUR </s>
-0.3010 <s> FOURTEEN </s>
-0.3010 <s> GO </s>
-0.3010 <s> HEAD </s>
-0.3010 <s> KNEE </s>
-0.3010 <s> LEFT </s>
-0.3010 <s> MUTE </s>
-0.3010 <s> NINE </s>
-0.3010 <s> NINETEEN </s>
-0.3010 <s> ONE </s>
-0.3010 <s> RIGHT </s>
-0.3010 <s> SAND MAN
-0.3010 <s> SEVEN </s>
-0.3010 <s> SEVENTEEN </s>
-0.3010 <s> SIX </s>
-0.3010 <s> SIXTEEN </s>
-0.3010 <s> STOP </s>
-0.3010 <s> TEN </s>
-0.3010 <s> THIRTEEN </s>
-0.3010 <s> THREE </s>
-0.3010 <s> TWELVE </s>
-0.3010 <s> TWO </s>
-0.3010 <s> UNMUTE </s>
-0.3010 <s> UP </s>
-0.3010 <s> VOLUME </s>
-0.3010 SAND MAN </s>

\end\
